{
  "capas": [
    {
      "w": [
        [
          -0.4862884752880497,
          0.564138786439329,
          0.3009064586837453,
          -0.33197750262258463,
          -0.22562581296087847,
          0.4764818602791052,
          0.06185628600422144,
          -0.49848302402242173,
          0.046964077875520926,
          0.45328646414370133,
          0.5164958724565663,
          0.364943088440864,
          -0.446210309729302,
          -0.1995636790867505,
          0.41688917568149075,
          -0.20033505279518166
        ],
        [
          0.028446430662206867,
          0.3279606768481721,
          -0.2770035064345263,
          0.07207951402003299,
          0.43736799107832525,
          -0.2881628450110614,
          0.19045508751135398,
          0.3914318243522886,
          -0.44008217237060965,
          0.07312802519495376,
          0.14121525465524198,
          -0.16119783754125028,
          -0.3559635789184976,
          -0.37445253869503836,
          0.38265108552846683,
          0.5366246224512454
        ],
        [
          -0.17300412432175194,
          -0.31861240429551857,
          0.24502863422363763,
          -0.05127377285525814,
          -0.39617384314835846,
          -0.3496621846140089,
          -0.48557866338237377,
          -0.1425913875701182,
          -0.1194800651904463,
          -0.14377715701815041,
          -0.296948593932172,
          0.1071646906318291,
          -0.5476565955617634,
          0.12627427306812344,
          -0.23995391600090799,
          0.0991315846883919
        ]
      ],
      "delAcumW": [
        [
          0.0,
          0.0,
          0.0,
          0.0,
          0.0,
          0.0,
          0.0,
          0.0,
          0.0,
          0.0,
          0.0,
          0.0,
          0.0,
          0.0,
          0.0,
          0.0
        ],
        [
          0.0,
          0.0,
          0.0,
          0.0,
          0.0,
          0.0,
          0.0,
          0.0,
          0.0,
          0.0,
          0.0,
          0.0,
          0.0,
          0.0,
          0.0,
          0.0
        ],
        [
          0.0,
          0.0,
          0.0,
          0.0,
          0.0,
          0.0,
          0.0,
          0.0,
          0.0,
          0.0,
          0.0,
          0.0,
          0.0,
          0.0,
          0.0,
          0.0
        ]
      ],
      "b": [
        0.0,
        0.0,
        0.0
      ],
      "delAcumB": [
        0.0,
        0.0,
        0.0
      ]
    },
    {
      "w": [
        [
          1.1745181666168283,
          -1.3567229902811533,
          0.826394981945278
        ],
        [
          -0.41598136116047646,
          1.2628094029809733,
          0.727086197810864
        ]
      ],
      "delAcumW": [
        [
          0.0,
          0.0,
          0.0
        ],
        [
          0.0,
          0.0,
          0.0
        ]
      ],
      "b": [
        0.0,
        0.0
      ],
      "delAcumB": [
        0.0,
        0.0
      ]
    }
  ],
  "acumCostes": 198.33927005885732,
  "cantCostes": 400.0
}